svm_type epsilon_svr
kernel_type rbf
gamma 0.001
nr_class 2
total_sv 30
rho -5.96969
SV
-10 1:33.346 2:-22.7302 
-10 1:27.8547 2:-24.0773 
-10 1:21.6261 2:-25.2227 
10 1:15.569 2:-23.8446 
-10 1:6.38528 2:-26.6755 
-10 1:-0.794292 2:-26.7279 
-10 1:37.7346 2:-24.9308 
-2.730553059181406 1:31.9581 2:-26.6804 
10 1:8.1465 2:-30.3281 
-0.6895486773533941 1:-0.279748 2:-30.668 
10 1:36.3369 2:-29.0686 
10 1:27.3482 2:-31.4323 
10 1:19.8698 2:-33.6148 
-10 1:9.99437 2:-35.8196 
10 1:41.8541 2:-32.3227 
10 1:33.5092 2:-35.2763 
1.852155460396957 1:23.2454 2:-38.0784 
5.561939563730582 1:11.8153 2:-40.0501 
10 1:-1.5575 2:-40.5428 
-2.91700170840202 1:55.3199 2:-31.9266 
-10 1:50.1802 2:-36.5196 
-1.292947146424732 1:41.0166 2:-39.7784 
-10 1:30.1832 2:-43.9998 
-10 1:15.2334 2:-47.4619 
-3.974345644686681 1:-1.90866 2:-47.9656 
10 1:64.0382 2:-34.7171 
0.6432916884286015 1:58.7172 2:-39.3687 
3.91795876950243 1:38.0136 2:-51.9274 
3.934888482175487 1:20.2473 2:-55.906 
5.694162271814172 1:-2.3489 2:-58.0796 
