svm_type epsilon_svr
kernel_type rbf
gamma 0.001
nr_class 2
total_sv 33
rho -5.19167
SV
-10 1:33.346 2:-22.7302 
-10 1:27.8547 2:-24.0773 
-10 1:21.6261 2:-25.2227 
10 1:15.569 2:-23.8446 
-10 1:6.38528 2:-26.6755 
10 1:-0.794292 2:-26.7279 
-10 1:37.7346 2:-24.9308 
10 1:31.9581 2:-26.6804 
10 1:25.0492 2:-28.1977 
1.386723207672732 1:17.0254 2:-29.6393 
-10 1:8.1465 2:-30.3281 
10 1:-0.279748 2:-30.668 
-10 1:42.5319 2:-27.3161 
10 1:36.3369 2:-29.0686 
10 1:19.8698 2:-33.6148 
-10 1:9.99437 2:-35.8196 
10 1:-0.185765 2:-35.8811 
-10 1:48.1214 2:-29.7477 
10 1:41.8541 2:-32.3227 
10 1:33.5092 2:-35.2763 
-0.1840690214357415 1:23.2454 2:-38.0784 
-9.942800757994275 1:-1.5575 2:-40.5428 
-3.828333996391954 1:55.3199 2:-31.9266 
10 1:50.1802 2:-36.5196 
0.7940590537090816 1:41.0166 2:-39.7784 
-7.274419672487473 1:30.1832 2:-43.9998 
-8.015296148531126 1:15.2334 2:-47.4619 
-10 1:64.0382 2:-34.7171 
10 1:58.7172 2:-39.3687 
-0.5149134387631518 1:51.5666 2:-45.9516 
-8.388555841995577 1:38.0136 2:-51.9274 
10 1:20.2473 2:-55.906 
5.96760661621747 1:-2.3489 2:-58.0796 
